{
  "_provenance": "Trained on real Polis comments + real human vote distributions (data/processed/polis_vote_labels.jsonl, 12 public conversations); see model/scorer/train_embedding_probe.py. Not a synthetic/hand-picked lexicon. temperature/calibrationBias are a Platt-scaling correction fit on the held-out split, applied at serving time as sigmoid(temperature * dot + calibrationBias).",
  "modelId": "sentence-transformers/all-MiniLM-L6-v2",
  "bias": -0.233044,
  "weights": [
    -0.129914,
    0.166131,
    0.154426,
    0.055224,
    0.226157,
    0.293669,
    -0.055697,
    -0.171014,
    -0.339409,
    -0.062792,
    -0.08541,
    0.139294,
    0.026665,
    0.114779,
    -0.070813,
    0.201285,
    -0.179655,
    -0.002666,
    -0.126113,
    0.44239,
    0.061374,
    0.038817,
    0.154548,
    0.01475,
    -0.071366,
    -0.036604,
    0.053468,
    -0.088967,
    0.125177,
    -0.079998,
    0.048725,
    0.108566,
    0.164926,
    0.070573,
    -0.183658,
    0.252171,
    0.035424,
    -0.27216,
    -0.011092,
    -0.210098,
    -0.198649,
    -0.05738,
    -0.121164,
    -0.013083,
    -0.077376,
    -0.09043,
    0.200038,
    -0.127965,
    -0.218379,
    -0.105357,
    -0.119521,
    -0.010967,
    -0.167285,
    -0.198718,
    0.112714,
    -0.085592,
    -0.040908,
    -0.263534,
    -0.115065,
    -0.29649,
    0.216648,
    -0.174814,
    -0.095475,
    0.023291,
    0.167113,
    0.018179,
    0.016029,
    0.262512,
    -0.229211,
    0.155135,
    -0.090554,
    0.16545,
    0.161583,
    -0.012045,
    -0.255922,
    -0.152317,
    -0.016394,
    0.208003,
    -0.035786,
    0.244891,
    0.172305,
    0.230155,
    -0.000405,
    0.156817,
    0.167509,
    0.027351,
    -0.127146,
    -0.322758,
    -0.203661,
    -0.125438,
    -0.048175,
    -0.104102,
    0.166081,
    -0.069551,
    -0.009244,
    0.089748,
    0.044239,
    0.013934,
    0.202691,
    -0.105607,
    0.002415,
    -0.151152,
    -0.136477,
    -0.143104,
    -0.263522,
    -0.032053,
    -0.07649,
    -0.059241,
    0.26277,
    0.168042,
    -0.036783,
    -0.059111,
    -0.086005,
    0.098408,
    0.190871,
    -0.344881,
    -0.032461,
    -0.056238,
    0.199316,
    -0.118216,
    -0.122421,
    -0.268436,
    0.046611,
    -0.151953,
    0.348051,
    -0.099132,
    -0.046941,
    -0.0,
    -0.029991,
    -0.068407,
    -0.018043,
    0.364552,
    -0.202901,
    0.0826,
    -0.033119,
    -0.275108,
    -0.123951,
    -0.157538,
    -0.127746,
    0.303626,
    0.182006,
    0.389005,
    -0.077312,
    -0.231921,
    -0.221529,
    0.050606,
    0.049622,
    -0.231038,
    0.164165,
    0.109931,
    0.097192,
    0.050936,
    0.239463,
    -0.369873,
    0.276506,
    0.138549,
    -0.34238,
    0.036885,
    0.348388,
    -0.032639,
    -0.254965,
    -0.046998,
    -0.047292,
    0.120396,
    -0.089527,
    -0.033253,
    0.238712,
    -0.099979,
    0.149212,
    0.285247,
    -0.066408,
    0.02229,
    0.034476,
    -0.082699,
    0.0011,
    0.209311,
    0.003582,
    0.063038,
    -0.009555,
    0.096326,
    0.076859,
    -0.09295,
    0.039141,
    0.258334,
    -0.208956,
    0.15456,
    -0.011602,
    -0.150044,
    -0.054739,
    -0.232485,
    0.047059,
    0.038755,
    0.160268,
    0.407417,
    0.032925,
    0.137294,
    0.025882,
    0.097992,
    -0.246885,
    -0.120841,
    -0.2534,
    -0.011829,
    -0.18635,
    0.178985,
    0.031184,
    -0.324786,
    0.152803,
    0.337457,
    -0.305303,
    0.20224,
    0.115187,
    -0.151445,
    -0.009421,
    -0.066922,
    0.219093,
    -0.122758,
    0.206013,
    -0.044005,
    0.177316,
    -0.027902,
    0.159413,
    0.022282,
    -0.03693,
    0.0,
    0.139592,
    0.127188,
    -0.018955,
    0.176446,
    0.096472,
    -0.016897,
    -0.127745,
    -0.433008,
    0.005368,
    -0.078503,
    -0.060418,
    0.150391,
    0.117512,
    0.009098,
    -0.072483,
    -0.026695,
    -0.070288,
    -0.138453,
    0.074381,
    -0.23323,
    0.211039,
    0.035451,
    -0.139011,
    -0.028223,
    0.081759,
    0.011716,
    -0.111442,
    -0.25485,
    0.197419,
    -0.183865,
    -0.058042,
    0.006355,
    0.012003,
    0.117629,
    -0.014801,
    0.090156,
    0.106827,
    -0.035241,
    0.154163,
    0.219556,
    0.077659,
    -0.039502,
    -0.039234,
    -0.000156,
    -0.168295,
    0.098373,
    -0.026141,
    0.051943,
    -0.100506,
    -0.136443,
    0.413447,
    0.0683,
    -0.037568,
    -0.156845,
    0.12875,
    -0.212262,
    -0.182637,
    -0.036447,
    0.12562,
    0.154111,
    -0.024056,
    0.131277,
    -0.037574,
    -0.061948,
    -0.161041,
    0.009189,
    -0.071228,
    -0.028804,
    0.079999,
    -0.027257,
    -0.001105,
    -0.139156,
    -0.248406,
    0.127628,
    0.048494,
    -0.079699,
    -0.204976,
    -0.102578,
    -0.184426,
    0.283473,
    0.108157,
    0.113267,
    -0.046808,
    -0.223704,
    0.059279,
    0.029271,
    0.102771,
    -0.231881,
    0.043846,
    -0.072416,
    -0.296135,
    -0.381353,
    -0.196331,
    -0.188271,
    -0.052893,
    -0.0,
    0.128747,
    -0.04406,
    -0.101,
    0.00253,
    -0.131039,
    -0.065702,
    -0.193846,
    0.101745,
    0.05271,
    0.137952,
    0.262915,
    -0.006766,
    0.1174,
    0.175104,
    0.24367,
    -0.063341,
    0.158518,
    -0.017796,
    -0.176285,
    -0.140964,
    0.210467,
    0.161695,
    -0.025154,
    0.013107,
    0.122561,
    0.199154,
    -0.103504,
    -0.06264,
    -0.145451,
    0.008394,
    -0.125539,
    0.007766,
    -0.106498,
    -0.071909,
    -0.183459,
    0.162467,
    -0.005583,
    0.014938,
    0.219548,
    -0.1164,
    0.061348,
    0.310323,
    0.034815,
    0.082163,
    -0.203976,
    -0.082596,
    -0.165826,
    0.344245,
    -0.209633,
    -0.119295,
    -0.033503,
    -0.071222,
    0.008271,
    0.121347,
    0.03733,
    -0.001615,
    0.016438,
    0.088643,
    0.005712,
    0.01017,
    0.107599,
    0.147785,
    0.124891,
    -0.163988
  ],
  "temperature": 2.228477,
  "calibrationBias": 0.25394,
  "trainedOn": {
    "nExamples": 1741,
    "nTrain": 1392,
    "nVal": 349,
    "bestC": 0.1,
    "valAccuracy": 0.6619,
    "valAuc": 0.7372,
    "minVotes": 5,
    "embeddingDim": 384
  }
}